14 100
sentence -0.003401 -0.004050 0.001215 0.002147 0.001599 0.000295 -0.000067 0.001266 -0.000972 0.004696 0.001377 0.000191 -0.000739 0.001684 -0.003707 -0.000287 0.003775 -0.002757 0.004801 0.001986 -0.002637 0.003183 0.002255 -0.002750 0.000959 -0.000587 0.002164 0.001970 -0.003440 -0.001881 -0.004996 0.003532 0.002229 0.002091 -0.000400 -0.000184 0.003947 -0.002539 -0.001334 0.003344 -0.003750 0.001643 0.003806 0.001126 -0.003610 -0.001097 0.003546 -0.003899 0.001347 -0.004444 0.000743 0.004158 -0.004656 0.004934 0.004496 0.001847 0.000561 -0.004496 -0.004142 -0.003562 -0.001062 0.000675 0.004268 -0.004384 0.000541 -0.001507 -0.004427 -0.004465 -0.003643 -0.001222 0.002427 -0.004722 0.004960 -0.002876 0.001197 -0.003261 0.003373 -0.001221 0.002838 -0.004039 0.004301 0.001160 0.001047 0.001679 0.002956 0.002543 -0.003826 0.004004 -0.000070 -0.002516 0.002256 -0.001068 -0.003707 0.004689 0.003173 -0.000704 -0.003159 -0.003902 0.000421 -0.000080
the -0.001567 0.003324 -0.003109 0.000495 -0.003235 0.003403 0.002680 0.004483 0.003760 -0.000700 0.003087 -0.004411 -0.001095 -0.002455 0.000858 -0.003255 -0.001828 0.003094 0.001137 -0.000016 -0.003959 0.004590 0.003319 0.001698 0.001545 -0.004393 -0.002912 -0.003607 -0.000084 -0.000720 0.000565 0.000602 -0.004809 -0.000802 0.000166 0.002871 0.002363 0.001667 -0.004977 0.000456 0.000824 -0.000017 0.002023 0.002261 0.000706 -0.001949 -0.001116 0.003809 0.002375 -0.002788 -0.004527 -0.003149 0.001726 -0.003434 0.002258 0.001313 0.002154 0.004641 0.003686 0.000650 -0.003769 -0.004001 -0.000588 -0.000823 -0.003583 -0.004085 -0.000467 -0.003485 0.004236 -0.002213 0.001670 -0.001537 0.003532 0.002784 -0.001706 -0.000729 -0.003507 0.001778 0.004411 -0.001403 0.004495 0.003574 -0.002083 0.001154 0.000774 -0.000325 0.004994 0.003119 0.003834 -0.003613 0.001429 0.000898 -0.002928 -0.001697 -0.002533 -0.000242 -0.004270 0.002801 -0.000299 -0.001599
this 0.002700 -0.002750 -0.000420 -0.000522 -0.001261 0.003952 0.001090 -0.004309 0.002710 -0.004035 0.002709 0.001061 0.004301 0.004236 0.003458 0.004949 0.001567 -0.003901 0.002895 -0.003594 -0.004144 0.004104 0.000599 -0.003740 -0.003129 0.000596 0.004940 0.001806 -0.000037 -0.004333 -0.002002 -0.000291 0.002992 0.003295 -0.002959 0.004069 0.002347 0.004508 0.003943 0.003358 0.003701 0.003335 -0.001979 0.000955 0.002820 0.000417 -0.000050 0.003906 0.003334 -0.002090 0.000670 -0.000301 0.004893 -0.001925 0.000853 -0.001304 0.000621 0.000644 0.003598 0.000975 -0.002675 0.002909 0.002860 -0.003129 0.000061 -0.003525 -0.001122 -0.000007 -0.002985 0.002809 -0.000243 -0.001286 0.002583 -0.004533 -0.004456 0.000206 0.002424 0.002577 -0.004207 0.004040 0.002786 -0.001114 0.000718 -0.001784 0.001436 -0.003075 0.001109 0.000802 -0.003148 0.003102 -0.000160 0.000921 0.003462 0.003470 0.003094 0.003386 0.001642 -0.002653 -0.002469 0.000520
is 0.004991 -0.002735 0.003715 -0.003253 0.002798 -0.000372 0.003602 0.002718 -0.001400 0.002096 0.002540 0.004167 -0.004527 -0.003101 -0.001141 -0.001291 0.001286 -0.002878 -0.004482 -0.000133 -0.000647 0.004388 0.004323 -0.000949 0.001712 -0.000785 -0.003492 0.002644 -0.003281 -0.002068 0.000561 0.003113 0.000895 -0.004675 -0.000782 -0.000855 0.002731 0.004419 -0.004840 0.002693 -0.001883 -0.003356 -0.004586 0.000504 0.003976 -0.004554 -0.002473 0.001667 0.000937 0.001544 0.004858 0.003022 -0.003461 0.004330 -0.002909 0.000768 0.002931 -0.001605 0.003087 0.000582 -0.004643 -0.002195 -0.001613 -0.004621 0.002287 -0.001737 -0.000662 -0.004283 -0.000851 -0.003366 0.000475 0.002390 -0.003979 -0.004302 -0.000958 -0.001059 0.000246 -0.000341 0.000354 0.003663 -0.002225 0.001245 -0.001827 0.000245 0.001304 0.000444 0.001961 0.003621 -0.000243 0.002384 -0.002031 0.001487 -0.004665 -0.000832 -0.004406 -0.003420 0.004496 -0.000107 0.004200 -0.001752
first -0.000601 0.002297 -0.002926 -0.004629 0.003515 0.004930 0.002337 0.004910 -0.002493 -0.004843 0.002516 0.004673 -0.003213 -0.000418 -0.002324 0.004453 -0.001804 -0.002468 -0.004456 0.000609 -0.000895 -0.003540 -0.001605 -0.000962 -0.000032 0.004899 0.002517 0.000058 0.004312 -0.000411 0.001018 -0.003696 -0.000604 -0.000231 -0.003014 0.004238 0.003731 -0.002067 0.001192 -0.000779 -0.001509 -0.000553 -0.001522 0.004228 0.000318 -0.000903 0.004271 0.001735 0.002386 -0.002418 -0.003601 0.003516 -0.000694 0.000271 -0.002493 0.004506 -0.003563 0.001272 0.002571 -0.000194 -0.004952 -0.003734 0.000054 -0.002046 -0.004539 -0.000895 0.001042 -0.002155 -0.004257 -0.002543 0.001809 0.003259 0.002723 -0.002520 0.000604 0.003857 -0.001993 -0.001371 -0.001530 0.000711 0.000244 0.004602 0.001056 0.001082 0.002185 0.002432 0.002179 -0.000349 -0.003612 -0.001384 -0.001833 0.001526 -0.004409 -0.002084 0.004278 0.000952 -0.002822 0.002420 0.001403 0.005000
for 0.000577 -0.004475 -0.001149 -0.002418 0.004806 0.001762 0.000905 -0.000084 0.004734 -0.003645 -0.004137 0.000457 0.001811 -0.003103 -0.000131 -0.000606 0.004476 0.000550 0.002243 -0.002221 0.001720 -0.003863 -0.002113 -0.002884 -0.004361 -0.000996 -0.001510 0.001081 -0.003198 0.003081 0.004105 0.001006 0.000249 0.004290 0.002369 -0.001232 -0.003437 -0.004982 0.004382 0.004934 -0.002820 -0.002731 -0.003296 -0.000789 -0.001573 0.001594 -0.000499 -0.003849 -0.000140 0.001091 0.000563 -0.002534 0.003863 0.004307 0.004362 0.000300 -0.000199 0.003513 -0.001737 0.000474 0.002804 -0.003106 0.001669 -0.004343 -0.004689 -0.001740 -0.000314 0.003912 -0.004623 -0.000204 -0.000994 -0.004597 0.004863 0.004667 0.004882 -0.003112 0.003829 -0.000515 -0.003957 -0.000421 0.002874 -0.004909 -0.002238 0.001311 0.004876 0.002600 -0.000393 0.002515 0.002838 -0.000412 0.004036 0.001101 -0.001324 0.000843 -0.002405 -0.001189 -0.001390 -0.004497 0.002846 -0.002188
word2vec -0.001842 0.000490 0.004815 0.000740 -0.000646 0.004893 -0.000468 0.002466 -0.004023 -0.001064 -0.003119 0.004793 0.000927 -0.002359 -0.003938 0.003338 0.003195 0.000317 0.002737 -0.000018 -0.001121 0.004046 0.003843 0.000666 0.004760 0.002745 0.001780 -0.003345 -0.000840 0.003767 -0.002362 -0.003491 -0.000282 0.001074 -0.000450 0.004751 -0.002868 -0.001506 0.002552 0.002122 0.003132 0.004246 0.002575 0.003568 0.003310 -0.000374 -0.001705 0.004612 0.001297 -0.001523 -0.000307 0.001063 0.000698 0.000460 -0.004605 0.002934 -0.003728 -0.001244 -0.000013 0.002861 -0.002460 0.001817 0.001548 -0.004138 0.001945 0.002676 -0.002082 0.004747 0.000430 -0.002473 0.002900 -0.001365 -0.004058 -0.003646 -0.001782 0.001334 0.002324 0.004691 -0.004065 -0.004810 -0.000938 0.000300 0.002598 0.002383 -0.000467 -0.004808 -0.004884 0.001135 -0.000779 0.000550 -0.003819 -0.001548 -0.001992 0.003896 -0.001531 0.000661 0.003469 -0.000541 0.001704 -0.001787
second -0.000820 -0.001861 -0.000607 0.004855 0.004778 0.001020 -0.000244 -0.003387 0.001121 0.000698 -0.003748 -0.002553 0.004295 -0.000750 -0.004063 -0.000222 0.004619 -0.001848 0.004488 -0.003726 0.004843 -0.001255 0.000402 0.002912 -0.000005 -0.004909 -0.001804 -0.004913 0.003092 0.003515 0.000973 0.001701 -0.001269 -0.002058 -0.000363 -0.000732 -0.000643 -0.003646 -0.002579 0.000139 0.003235 -0.001007 -0.002100 0.004165 -0.004302 -0.004088 -0.000796 -0.000337 -0.004136 -0.001049 0.002804 -0.001646 0.000292 0.003025 0.003004 -0.002979 -0.004702 0.001463 0.004294 -0.001689 -0.001545 -0.000247 -0.002379 0.000344 -0.004045 0.002968 -0.001551 -0.004392 -0.003994 0.001451 -0.004092 0.002088 -0.000239 0.001969 0.000263 0.001471 0.000662 0.002213 -0.000136 0.003248 0.002594 0.003720 -0.003271 -0.001837 -0.002102 0.004426 0.002397 0.001936 -0.004334 0.001679 -0.001258 0.004394 0.003842 0.002935 0.001817 0.000731 -0.001733 0.003827 -0.004132 -0.003279
yet -0.001290 -0.002632 -0.001010 -0.004142 0.000897 0.002930 -0.000009 0.002086 0.002761 0.004263 -0.004600 -0.001141 0.002751 -0.003256 -0.004517 0.002242 -0.002869 0.000060 -0.002169 -0.002380 -0.001478 -0.000687 -0.002348 0.003838 0.002348 -0.001065 -0.004548 -0.000780 -0.003457 0.001684 0.001823 -0.001564 0.004246 -0.002097 0.004580 0.002832 -0.003075 0.002606 -0.004847 -0.002521 0.002878 -0.004391 -0.003683 -0.001945 -0.001657 0.001192 0.002337 0.004048 -0.004995 -0.000787 -0.003538 -0.000933 0.004425 0.001020 0.001546 0.000908 0.004733 0.000478 -0.001279 -0.003048 0.004824 -0.003828 -0.002230 -0.001823 -0.001039 -0.004289 -0.002059 -0.003236 -0.002250 -0.004661 -0.004309 0.004152 -0.000136 0.002479 0.003116 0.000426 0.001979 -0.001956 -0.001325 0.003178 -0.002797 -0.004272 -0.002908 -0.001755 -0.003129 -0.003717 -0.003049 -0.003759 -0.001720 -0.004849 0.002105 0.000316 0.000445 -0.003244 -0.001431 0.002951 0.000316 0.001978 0.000350 -0.000203
another 0.002635 0.003465 0.004218 -0.000502 -0.004957 -0.002607 -0.003960 0.004189 0.000557 -0.004802 0.003485 -0.004578 -0.004452 0.003676 0.002013 -0.003525 0.004756 -0.000828 0.001018 -0.003273 -0.003680 0.001462 -0.004534 -0.000617 0.004909 -0.000627 0.000219 0.002911 0.000963 -0.001707 -0.001756 0.001770 0.003736 -0.004421 0.002705 0.001999 -0.004500 -0.001845 0.000308 0.002287 -0.002718 -0.004797 0.001238 0.003342 0.003914 -0.001474 -0.000280 -0.000916 -0.003011 0.001074 -0.003194 0.004938 0.004474 0.004057 0.004767 -0.000697 0.000393 0.004305 -0.001927 0.004857 -0.000319 -0.002367 -0.003055 0.002387 -0.001305 -0.002717 0.000916 -0.002024 0.001044 -0.002241 -0.000073 -0.001369 0.004757 -0.004199 0.000848 -0.001708 0.002941 0.002538 0.000147 0.001175 0.000837 0.000331 -0.003561 0.002980 0.002519 0.004560 -0.000887 0.002182 0.003120 -0.003597 0.001411 -0.000846 -0.000906 -0.000016 0.002146 -0.001684 -0.001620 0.000996 0.002162 -0.003900
one -0.000980 0.002374 -0.004333 0.003216 -0.003929 0.004188 0.002964 0.003530 -0.001381 0.002692 -0.003763 0.001846 -0.002754 -0.000929 -0.000730 0.004252 0.003284 -0.001726 0.001946 -0.004149 -0.001817 -0.002834 -0.001795 0.001532 -0.003291 0.001571 0.000437 -0.000915 0.001110 -0.004522 -0.001401 0.001997 -0.001241 0.001011 -0.004747 0.004457 0.001240 -0.004298 -0.004711 0.001887 -0.000373 -0.000164 -0.003457 -0.001942 0.001395 -0.002428 -0.000757 -0.001298 -0.002204 0.002175 -0.002065 -0.001689 0.003974 0.004195 -0.003215 0.002286 -0.003947 -0.000264 -0.004882 -0.002350 0.001879 0.000546 -0.004939 0.004015 -0.003863 0.002211 -0.000266 -0.004067 -0.001784 -0.001500 0.000962 -0.001985 -0.002943 -0.002812 0.004625 -0.004257 0.003388 0.001084 0.001691 -0.003950 0.002324 0.004341 0.004575 -0.002535 0.003316 -0.003058 0.004262 -0.004680 -0.002523 -0.004223 0.000487 0.002953 -0.002250 -0.002416 0.000400 0.004550 0.002414 0.000967 -0.000533 0.001605
more -0.000238 -0.000826 -0.003739 0.002272 0.004376 -0.000835 0.000903 -0.000892 0.001741 -0.004905 0.003500 0.003145 0.001832 -0.001562 0.000277 0.002337 0.001063 -0.001135 -0.004621 0.000972 0.000081 0.003710 0.003777 0.000515 -0.000510 0.002262 0.004513 -0.000795 -0.001943 -0.000708 0.001276 0.002771 0.002362 -0.001021 0.002205 0.004508 -0.004188 -0.003648 0.003267 0.000333 -0.000347 0.001775 -0.002783 0.003627 -0.001315 -0.004382 -0.000576 0.001435 -0.001477 -0.001750 -0.002248 0.002016 0.001872 -0.004014 -0.004574 -0.002380 -0.000837 -0.004460 0.001463 -0.004194 0.003695 -0.003340 0.001971 -0.001100 0.004170 -0.003257 0.003158 -0.000479 -0.000903 0.003074 -0.002739 -0.003277 -0.000264 0.000317 -0.000448 0.003610 0.003535 0.003244 -0.002315 0.000100 -0.003540 -0.001234 -0.002083 -0.003498 -0.002290 0.001280 -0.002256 0.002126 -0.003166 0.001317 0.004893 -0.004079 0.004468 -0.002933 -0.002249 0.001987 -0.004798 0.003590 0.001771 0.001496
and -0.002000 0.000038 0.000662 0.004481 -0.004518 0.002767 0.000122 -0.003721 0.003208 0.001484 0.002351 0.001141 -0.004387 0.001665 -0.003139 0.000749 0.000691 0.001810 -0.003380 0.000158 -0.000270 0.002400 0.002696 -0.004984 0.003028 -0.004404 0.002105 0.002940 -0.004561 0.004891 -0.004018 0.004558 0.002022 -0.000480 -0.003526 0.003759 -0.000430 0.000640 0.004741 -0.000503 0.000975 -0.000811 -0.003962 -0.001127 0.002828 0.000757 -0.000256 0.001081 -0.000263 0.003541 -0.002733 -0.004110 0.001874 0.001502 -0.001679 0.004077 0.004200 0.003092 -0.001225 -0.003711 -0.001707 0.003663 -0.002676 -0.000720 0.004173 0.003739 -0.004389 0.004547 0.001187 -0.004050 0.004802 -0.001863 -0.004748 -0.004282 -0.001851 0.004725 -0.002594 0.003469 -0.004602 -0.000250 -0.004443 -0.001426 0.001998 0.001852 0.002352 0.000154 -0.004431 -0.002343 -0.004630 0.004064 0.001543 -0.001131 -0.004444 0.000127 -0.003930 0.002131 -0.002665 0.004911 -0.004224 0.000086
final 0.000964 -0.003749 -0.004560 -0.001371 -0.000514 -0.000404 0.003328 0.002515 -0.003059 0.001586 -0.003655 -0.001320 0.002757 0.002603 0.003475 0.002260 0.003474 -0.004848 0.004862 -0.002973 -0.003083 0.004936 0.003793 0.000935 0.004646 -0.003635 -0.002562 0.000273 -0.001749 -0.002895 -0.000335 -0.004949 -0.004466 0.003036 -0.000142 0.004595 0.000211 0.001399 0.002409 0.004370 -0.004528 -0.000548 0.001284 -0.002645 -0.004198 -0.003091 -0.002900 -0.004614 -0.000988 -0.000908 0.002440 -0.002492 0.004964 -0.004343 -0.002867 -0.001710 -0.002573 0.002623 -0.002163 -0.002403 -0.002854 0.002491 -0.003070 0.000061 0.001995 -0.004645 0.002474 0.002463 0.004365 -0.003361 0.004907 0.004469 -0.000063 -0.003005 -0.003354 0.000125 0.000220 -0.002566 -0.002798 -0.001891 -0.003034 -0.003002 -0.001934 0.001487 0.003333 -0.002361 -0.001827 -0.003858 0.001357 -0.004798 0.001547 -0.000492 -0.000464 -0.001263 -0.001053 -0.001681 0.003113 0.002202 0.003677 0.001554
